<?xml version="1.0"?>
<opencv_storage>
<cascade>
  <stageType>BOOST</stageType>
  <featureType>HAAR</featureType>
  <height>20</height>
  <width>20</width>
  <stageParams>
    <boostType>GAB</boostType>
    <minHitRate>9.9500000476837158e-01</minHitRate>
    <maxFalseAlarm>2.0000000298023224e-01</maxFalseAlarm>
    <weightTrimRate>9.4999999999999996e-01</weightTrimRate>
    <maxDepth>1</maxDepth>
    <maxWeakCount>100</maxWeakCount></stageParams>
  <featureParams>
    <maxCatCount>0</maxCatCount>
    <featSize>1</featSize>
    <mode>ALL</mode></featureParams>
  <stageNum>5</stageNum>
  <stages>
    <!-- stage 0 -->
    <_>
      <maxWeakCount>2</maxWeakCount>
      <stageThreshold>6.6822418011724949e-04</stageThreshold>
      <weakClassifiers>
        <_>
          <internalNodes>
            0 -1 13 -2.4283520877361298e-02</internalNodes>
          <leafValues>
            9.4848084449768066e-01 -9.4929003715515137e-01</leafValues></_>
        <_>
          <internalNodes>
            0 -1 1 9.7606450319290161e-02</internalNodes>
          <leafValues>
            -9.3985080718994141e-01 9.4995826482772827e-01</leafValues></_></weakClassifiers></_>
    <!-- stage 1 -->
    <_>
      <maxWeakCount>3</maxWeakCount>
      <stageThreshold>3.7412360310554504e-01</stageThreshold>
      <weakClassifiers>
        <_>
          <internalNodes>
            0 -1 12 -1.9890267401933670e-02</internalNodes>
          <leafValues>
            8.1265509128570557e-01 -9.1216218471527100e-01</leafValues></_>
        <_>
          <internalNodes>
            0 -1 3 5.1551867276430130e-02</internalNodes>
          <leafValues>
            -7.7565902471542358e-01 7.8376305103302002e-01</leafValues></_>
        <_>
          <internalNodes>
            0 -1 4 4.0440727025270462e-03</internalNodes>
          <leafValues>
            -9.3537950515747070e-01 5.0252270698547363e-01</leafValues></_></weakClassifiers></_>
    <!-- stage 2 -->
    <_>
      <maxWeakCount>5</maxWeakCount>
      <stageThreshold>-9.0649968385696411e-01</stageThreshold>
      <weakClassifiers>
        <_>
          <internalNodes>
            0 -1 18 3.2861933112144470e-02</internalNodes>
          <leafValues>
            -9.1706162691116333e-01 7.6932364702224731e-01</leafValues></_>
        <_>
          <internalNodes>
            0 -1 21 -1.5334063209593296e-02</internalNodes>
          <leafValues>
            5.6016755104064941e-01 -7.7041262388229370e-01</leafValues></_>
        <_>
          <internalNodes>
            0 -1 5 7.3687568306922913e-02</internalNodes>
          <leafValues>
            -6.4101773500442505e-01 6.4499962329864502e-01</leafValues></_>
        <_>
          <internalNodes>
            0 -1 17 2.2221969440579414e-02</internalNodes>
          <leafValues>
            -7.3257118463516235e-01 5.4773259162902832e-01</leafValues></_>
        <_>
          <internalNodes>
            0 -1 6 2.5783511810004711e-03</internalNodes>
          <leafValues>
            -8.3899551630020142e-01 4.6817815303802490e-01</leafValues></_></weakClassifiers></_>
    <!-- stage 3 -->
    <_>
      <maxWeakCount>5</maxWeakCount>
      <stageThreshold>-4.1817851364612579e-02</stageThreshold>
      <weakClassifiers>
        <_>
          <internalNodes>
            0 -1 14 -1.8608771264553070e-02</internalNodes>
          <leafValues>
            6.7246043682098389e-01 -8.5357451438903809e-01</leafValues></_>
        <_>
          <internalNodes>
            0 -1 2 -1.2585316784679890e-02</internalNodes>
          <leafValues>
            5.8259332180023193e-01 -7.9422003030776978e-01</leafValues></_>
        <_>
          <internalNodes>
            0 -1 11 1.3510817661881447e-02</internalNodes>
          <leafValues>
            -7.0199429988861084e-01 5.2211701869964600e-01</leafValues></_>
        <_>
          <internalNodes>
            0 -1 20 -4.2150327935814857e-03</internalNodes>
          <leafValues>
            6.6825819015502930e-01 -6.0023510456085205e-01</leafValues></_>
        <_>
          <internalNodes>
            0 -1 8 3.2844606786966324e-02</internalNodes>
          <leafValues>
            -7.7504903078079224e-01 4.1560146212577820e-01</leafValues></_></weakClassifiers></_>
    <!-- stage 4 -->
    <_>
      <maxWeakCount>8</maxWeakCount>
      <stageThreshold>-5.1668393611907959e-01</stageThreshold>
      <weakClassifiers>
        <_>
          <internalNodes>
            0 -1 7 4.8532858490943909e-02</internalNodes>
          <leafValues>
            -6.8833333253860474e-01 6.1803919076919556e-01</leafValues></_>
        <_>
          <internalNodes>
            0 -1 15 -7.9762786626815796e-03</internalNodes>
          <leafValues>
            3.8768845796585083e-01 -8.6725604534149170e-01</leafValues></_>
        <_>
          <internalNodes>
            0 -1 0 -8.0539158079773188e-04</internalNodes>
          <leafValues>
            4.2348858714103699e-01 -6.7933547496795654e-01</leafValues></_>
        <_>
          <internalNodes>
            0 -1 9 4.3557837605476379e-02</internalNodes>
          <leafValues>
            -8.7910628318786621e-01 3.3782777190208435e-01</leafValues></_>
        <_>
          <internalNodes>
            0 -1 16 2.5828521698713303e-02</internalNodes>
          <leafValues>
            -7.1148920059204102e-01 4.6190184354782104e-01</leafValues></_>
        <_>
          <internalNodes>
            0 -1 22 -5.7723501231521368e-04</internalNodes>
          <leafValues>
            3.0616563558578491e-01 -7.4688243865966797e-01</leafValues></_>
        <_>
          <internalNodes>
            0 -1 19 6.5042704343795776e-02</internalNodes>
          <leafValues>
            -7.7876663208007813e-01 2.8879365324974060e-01</leafValues></_>
        <_>
          <internalNodes>
            0 -1 10 2.3271501049748622e-05</internalNodes>
          <leafValues>
            -8.0817890167236328e-01 3.0468049645423889e-01</leafValues></_></weakClassifiers></_></stages>
  <features>
    <_>
      <rects>
        <_>
          0 0 3 1 -1.</_>
        <_>
          1 0 1 1 3.</_></rects>
      <tilted>0</tilted></_>
    <_>
      <rects>
        <_>
          0 1 20 4 -1.</_>
        <_>
          0 3 20 2 2.</_></rects>
      <tilted>0</tilted></_>
    <_>
      <rects>
        <_>
          2 0 4 4 -1.</_>
        <_>
          2 1 4 2 2.</_></rects>
      <tilted>0</tilted></_>
    <_>
      <rects>
        <_>
          3 0 8 2 -1.</_>
        <_>
          5 2 4 2 2.</_></rects>
      <tilted>1</tilted></_>
    <_>
      <rects>
        <_>
          3 17 6 3 -1.</_>
        <_>
          6 17 3 3 2.</_></rects>
      <tilted>0</tilted></_>
    <_>
      <rects>
        <_>
          4 0 8 2 -1.</_>
        <_>
          6 2 4 2 2.</_></rects>
      <tilted>1</tilted></_>
    <_>
      <rects>
        <_>
          4 8 1 4 -1.</_>
        <_>
          4 8 1 2 2.</_></rects>
      <tilted>1</tilted></_>
    <_>
      <rects>
        <_>
          6 0 6 2 -1.</_>
        <_>
          8 2 2 2 3.</_></rects>
      <tilted>1</tilted></_>
    <_>
      <rects>
        <_>
          6 4 10 6 -1.</_>
        <_>
          6 4 10 3 2.</_></rects>
      <tilted>1</tilted></_>
    <_>
      <rects>
        <_>
          7 0 13 4 -1.</_>
        <_>
          7 2 13 2 2.</_></rects>
      <tilted>0</tilted></_>
    <_>
      <rects>
        <_>
          7 14 4 6 -1.</_>
        <_>
          7 14 2 3 2.</_>
        <_>
          9 17 2 3 2.</_></rects>
      <tilted>0</tilted></_>
    <_>
      <rects>
        <_>
          8 0 6 6 -1.</_>
        <_>
          8 0 3 3 2.</_>
        <_>
          11 3 3 3 2.</_></rects>
      <tilted>0</tilted></_>
    <_>
      <rects>
        <_>
          8 4 3 7 -1.</_>
        <_>
          9 4 1 7 3.</_></rects>
      <tilted>0</tilted></_>
    <_>
      <rects>
        <_>
          8 4 4 9 -1.</_>
        <_>
          9 4 2 9 2.</_></rects>
      <tilted>0</tilted></_>
    <_>
      <rects>
        <_>
          8 4 2 12 -1.</_>
        <_>
          9 4 1 12 2.</_></rects>
      <tilted>0</tilted></_>
    <_>
      <rects>
        <_>
          8 8 12 12 -1.</_>
        <_>
          8 8 6 6 2.</_>
        <_>
          14 14 6 6 2.</_></rects>
      <tilted>0</tilted></_>
    <_>
      <rects>
        <_>
          10 0 3 20 -1.</_>
        <_>
          11 0 1 20 3.</_></rects>
      <tilted>0</tilted></_>
    <_>
      <rects>
        <_>
          10 1 3 16 -1.</_>
        <_>
          11 1 1 16 3.</_></rects>
      <tilted>0</tilted></_>
    <_>
      <rects>
        <_>
          13 1 7 4 -1.</_>
        <_>
          13 3 7 2 2.</_></rects>
      <tilted>0</tilted></_>
    <_>
      <rects>
        <_>
          14 0 6 16 -1.</_>
        <_>
          14 4 6 8 2.</_></rects>
      <tilted>0</tilted></_>
    <_>
      <rects>
        <_>
          15 18 3 2 -1.</_>
        <_>
          15 19 3 1 2.</_></rects>
      <tilted>0</tilted></_>
    <_>
      <rects>
        <_>
          16 3 4 15 -1.</_>
        <_>
          18 3 2 15 2.</_></rects>
      <tilted>0</tilted></_>
    <_>
      <rects>
        <_>
          17 7 2 2 -1.</_>
        <_>
          18 7 1 2 2.</_></rects>
      <tilted>0</tilted></_></features></cascade>
</opencv_storage>
